digraph Tree {
node [shape=box, style="filled, rounded", color="black", fontname=helvetica] ;
edge [fontname=helvetica] ;
0 [label="Percent Permanent Housing <= 70.458\ngini = 0.303\nsamples = 392\nvalue = [319, 73]\nclass = Improvements Needed", fillcolor="#eb9e66"] ;
1 [label="gini = 0.0\nsamples = 276\nvalue = [276, 0]\nclass = Improvements Needed", fillcolor="#e58139"] ;
0 -> 1 [labeldistance=2.5, labelangle=45, headlabel="True"] ;
2 [label="PIT Count <= 27.5\ngini = 0.467\nsamples = 116\nvalue = [43, 73]\nclass = Successful", fillcolor="#aed7f4"] ;
0 -> 2 [labeldistance=2.5, labelangle=-45, headlabel="False"] ;
3 [label="gini = 0.0\nsamples = 42\nvalue = [42, 0]\nclass = Improvements Needed", fillcolor="#e58139"] ;
2 -> 3 ;
4 [label="Year-Round Beds <= 30.0\ngini = 0.027\nsamples = 74\nvalue = [1, 73]\nclass = Successful", fillcolor="#3c9ee5"] ;
2 -> 4 ;
5 [label="gini = 0.0\nsamples = 1\nvalue = [1, 0]\nclass = Improvements Needed", fillcolor="#e58139"] ;
4 -> 5 ;
6 [label="gini = 0.0\nsamples = 73\nvalue = [0, 73]\nclass = Successful", fillcolor="#399de5"] ;
4 -> 6 ;
}